0.5461019636901734, 0.8150175836631058, -1.0869744058182873, -0.09198672873156474, 0.6619964176986615, 1.0905557983934064, 1.199048392884506, -0.3032806076526988, -0.23497157129162366, 0.9595557664580842, -2.9846562667491643, -0.6583758079738754, 3.279106970848997, 1.5451967828005524, -1.5313848087463973, 3.0191045085740376, -0.46601228917741083, -4.05973676226554, -1.0279188985697634, 1.3182806819411408, -4.543221385854933, -1.2953471499521945, 3.5445539213538506, 1.1998071013942297, -2.36598062237144, -0.5803576098967631, -0.8337923633039118, 0.14776252595783929, 0.7796585899546148, -0.8117480596842971, -0.3854879506156782, -0.5345359022454386, -0.060227135315265426, -0.4909169671958059, -0.741041494910825, -3.3652036871868103, 1.4891636906614767, 4.009021989970412, -2.2558241195758937, 0.46169871722778866
0.7423032125663205, 0.9521545588589762, 0.11326916006846205, -0.543095060805953, -1.0655767402374294, -0.496234789029703, -0.8463968186416947, 2.5563219292551667
0.1715558901287471, 0.1596876778438476, -0.11277062054784431, 0.19913202277442543, -0.3261187818982056, 0.09200314619415434, -0.13301067565822855, -1.2032335350567969, 0.15154143286989888, 0.1997073562715682, 0.029648556343840775, 0.1862079691978214, -0.06108722473370134, -0.015746301135151596, -0.11831347192230593, 0.2875199986027796, 0.012974262859759358, 0.174518977155109, 0.43561536884997026, -0.2909664376366851, 0.517526468278594, 0.11323986506679026, -0.09784682710491206, 0.5206671160855372
-1.9487635168473632, 2.2663995137349375, -0.5207334845673613
