0.5796537723010226, -0.5848351042921277, 1.0378706544176408, 0.9016555511555833, 0.6723074112230188, -1.380832151553566, 1.214964663866511, 2.0152672229499813, -0.36164616495291113, 0.39275028472618706, -1.5895732558600562, -2.0741680146562578, -0.778252343688724, 0.5727826364465016, -1.0467157813944077, -1.0445850509937404, 0.16491913917731188, 0.0891194359719881, -0.9430437060663445, -0.8165107424542459, 0.375453385927121, -0.7662273639160165, 1.4726913051953288, 0.9973868547692624, -0.6581322579044531, 0.6827311493928536, -0.657265292604696, -0.8164388708781757, 0.7790221638996961, -1.181292423305774, 1.3560634462061472, 1.399103600333991
-0.20596370885991547, -0.5428412866144962, 1.6435451600734625, 0.865047947570429, 0.5213187951302612, -0.8703572178441902, 0.46087516241571325, -0.5922594295558432
-0.9802870282446878, -1.249571873096747, 1.1484774454665596, 0.7884379650011816, 0.5437265758921211, -0.9388811520190896, 0.50574593237514, -1.5165161914582823, 0.1883125650887443, 0.5336518601334769, -0.04928426826683679, -0.22114204496915282, 0.01704560503146635, 0.01746707511110656, -0.3095556701197055, 0.047504594327493745, 0.19124368502225036, 0.7511363106787543, -1.1529133109129728, -0.9420771882313702, -0.5857536805640935, 0.833292278391904, -0.8106576440124066, 0.3021396923250672
0.06537528952368704, 0.4800457246611445, -0.569130867021185
