-0.14485150481627945, -0.29503059474378857, -0.44605519344107747, 0.15617260229877053, -0.06941630159295649, -1.0014204117233034, 0.5602154881189012, 0.11252320267615497, 0.04720647274556968, 0.7047821142233928, 1.0521306191318536, -0.7210953990570367, 0.21877679115693735, -0.6155971979075848, 0.13690522489430723, 0.508884579506813, 0.3426606952062344, -0.26546712016341656, -0.351149986214255, 0.11481177074727426, 1.784278275140885, -0.25515428802279777, -0.8247376056477819, 0.6949294395242376, 1.5882227552111468, -0.1383967097529637, -0.23998800646704044, 0.3445147681680292, -0.4104270685869904, -0.1509454351488082, -0.5479916803681398, 0.07267265260242686, -0.22471463296360478, -0.48332693011520694, -0.24702586179109415, -0.631533378986322, -0.062243773810377497, 0.028051749657889233, -0.5191833290894736, 1.122015441691149
0.10648573211487605, 0.2104331626251324, 0.3727897841332664, -0.4611684834358391, -0.3065436170404455, -0.47894375086738006, 0.0029198447336342514, 1.0669405456438477
-0.1452849106048006, -1.1072526045207112, -1.1216333816264892, -0.2699538951135337, 1.0422020138629184, -0.08064018170554155, 0.2251611132086509, -1.5596963651652216, 0.37893464530905807, 0.8932659043991763, 0.6256662428212034, 0.3408082015734023, 0.6474498726899578, -0.1183576221387127, -0.303531374159977, 0.5808551592150583, -0.025954742406183826, 0.36987240208038885, -0.13006067931975065, 0.17377929295467684, -1.3593051971015584, -0.2126488841473988, -0.24253366028897852, 0.593552631230191
-1.445134001755053, 1.1451118384454213, -0.046985020669778874
