-0.6103381099789588, 0.2021174482218688, -0.3283131894717557, -0.4868301664220504, 1.686913243001589, -0.2178384872852726, 0.1903646637546827, 0.035997690960065255, -0.274960580766307, 0.1385689989425883, 0.2495653308786476, 0.32114311986259586, -0.00789670121913356, -0.44267298739770033, -0.028942254049649493, -0.7194165105460559, -0.03182272229310786, 0.4799666025385189, -0.39488965651122937, 0.10065216898807919, -0.2217536985625308, 0.08411933376642244, -0.35600320674113106, -0.25658743818743107, 0.15502562407497972, 2.1397545514281404, -0.3731343861803222, -0.6653852204395058, 0.6182079768830472, 1.459759204642694, 0.01586531898238915, -0.3765488597702637, -0.17605367442285372, -0.25923485213267766, 0.061072206250564295, -0.13157082115135177, -0.578205317779692, -0.028393151797512128, 0.17514265995215203, 0.0003307865524810796
0.8267074824619672, -0.12773675647938154, -0.4624717516651866, 0.9475863104941643, -0.3879398472254356, -0.32641228485332807, 0.1897438766213864, -0.10603849426460328
-1.438690724996288, 0.10354108918145456, -0.056978596975065215, -1.38877823302255, 0.19709875657385215, 1.114522903267001, -0.07695096004673468, 0.1659751576391102, 0.9462060031410011, 0.12627078805708747, 0.058707536184845456, 0.8142526707505013, -0.11264883668869727, 0.562284060127311, -0.1751062394358167, -0.17850897166602978, 0.7668463734470242, -0.15571465747097032, -0.04986422506788636, 0.36409396597125043, 0.48836507950713887, -1.4538609382016576, 0.18987234922306698, -0.2607815577461297
-1.3218801089525658, 1.4787935061190138, 0.3443960568486124
